<?xml version="1.0"?>
<opencv_storage>
<opencv_ml_svm>
  <format>3</format>
  <svmType>C_SVC</svmType>
  <kernel>
    <type>RBF</type>
    <gamma>1.0000000000000000e-02</gamma></kernel>
  <C>10.</C>
  <term_criteria><epsilon>1.1920928955078125e-07</epsilon>
    <iterations>1000</iterations></term_criteria>
  <var_count>3</var_count>
  <class_count>2</class_count>
  <class_labels type_id="opencv-matrix">
    <rows>2</rows>
    <cols>1</cols>
    <dt>i</dt>
    <data>
      0 1</data></class_labels>
  <sv_total>202</sv_total>
  <support_vectors>
    <_>
      0. 0. 0.</_>
    <_>
      180. 165. 255.</_>
    <_>
      173. 167. 248.</_>
    <_>
      196. 174. 255.</_>
    <_>
      207. 195. 225.</_>
    <_>
      201. 192. 213.</_>
    <_>
      190. 180. 223.</_>
    <_>
      197. 186. 236.</_>
    <_>
      174. 167. 202.</_>
    <_>
      161. 150. 206.</_>
    <_>
      146. 136. 196.</_>
    <_>
      138. 128. 188.</_>
    <_>
      116. 109. 160.</_>
    <_>
      118. 115. 137.</_>
    <_>
      96. 93. 109.</_>
    <_>
      88. 88. 106.</_>
    <_>
      86. 85. 117.</_>
    <_>
      82. 76. 111.</_>
    <_>
      68. 72. 77.</_>
    <_>
      89. 92. 97.</_>
    <_>
      0. 0. 0.</_>
    <_>
      0. 0. 0.</_>
    <_>
      100. 107. 127.</_>
    <_>
      97. 101. 130.</_>
    <_>
      109. 116. 141.</_>
    <_>
      114. 116. 164.</_>
    <_>
      128. 128. 182.</_>
    <_>
      138. 138. 198.</_>
    <_>
      149. 149. 203.</_>
    <_>
      161. 164. 195.</_>
    <_>
      173. 180. 195.</_>
    <_>
      190. 198. 191.</_>
    <_>
      197. 196. 216.</_>
    <_>
      209. 202. 235.</_>
    <_>
      211. 208. 224.</_>
    <_>
      206. 201. 233.</_>
    <_>
      211. 209. 221.</_>
    <_>
      210. 196. 238.</_>
    <_>
      197. 180. 244.</_>
    <_>
      162. 158. 247.</_>
    <_>
      186. 176. 252.</_>
    <_>
      195. 182. 255.</_>
    <_>
      119. 118. 204.</_>
    <_>
      136. 138. 232.</_>
    <_>
      148. 144. 247.</_>
    <_>
      168. 154. 255.</_>
    <_>
      182. 175. 248.</_>
    <_>
      199. 177. 255.</_>
    <_>
      170. 157. 255.</_>
    <_>
      115. 121. 164.</_>
    <_>
      135. 138. 189.</_>
    <_>
      158. 161. 206.</_>
    <_>
      149. 148. 192.</_>
    <_>
      68. 71. 79.</_>
    <_>
      181. 176. 227.</_>
    <_>
      155. 165. 183.</_>
    <_>
      133. 125. 172.</_>
    <_>
      164. 168. 217.</_>
    <_>
      169. 173. 221.</_>
    <_>
      181. 182. 232.</_>
    <_>
      212. 207. 252.</_>
    <_>
      202. 199. 245.</_>
    <_>
      126. 126. 162.</_>
    <_>
      104. 100. 105.</_>
    <_>
      111. 109. 131.</_>
    <_>
      147. 137. 237.</_>
    <_>
      117. 113. 219.</_>
    <_>
      111. 110. 208.</_>
    <_>
      78. 74. 140.</_>
    <_>
      109. 98. 202.</_>
    <_>
      186. 164. 253.</_>
    <_>
      156. 153. 198.</_>
    <_>
      177. 185. 38.</_>
    <_>
      191. 199. 39.</_>
    <_>
      164. 179. 34.</_>
    <_>
      145. 158. 30.</_>
    <_>
      191. 184. 169.</_>
    <_>
      178. 171. 162.</_>
    <_>
      160. 158. 147.</_>
    <_>
      145. 141. 136.</_>
    <_>
      200. 192. 185.</_>
    <_>
      216. 215. 177.</_>
    <_>
      227. 220. 195.</_>
    <_>
      223. 217. 194.</_>
    <_>
      209. 205. 187.</_>
    <_>
      187. 181. 162.</_>
    <_>
      161. 153. 146.</_>
    <_>
      93. 92. 88.</_>
    <_>
      42. 37. 39.</_>
    <_>
      52. 42. 42.</_>
    <_>
      178. 159. 156.</_>
    <_>
      236. 225. 227.</_>
    <_>
      237. 224. 232.</_>
    <_>
      252. 245. 242.</_>
    <_>
      255. 248. 245.</_>
    <_>
      158. 164. 83.</_>
    <_>
      178. 176. 98.</_>
    <_>
      177. 175. 105.</_>
    <_>
      184. 188. 99.</_>
    <_>
      193. 195. 95.</_>
    <_>
      188. 189. 109.</_>
    <_>
      173. 176. 114.</_>
    <_>
      167. 170. 121.</_>
    <_>
      255. 255. 237.</_>
    <_>
      255. 253. 228.</_>
    <_>
      244. 254. 255.</_>
    <_>
      231. 255. 253.</_>
    <_>
      210. 254. 253.</_>
    <_>
      187. 254. 255.</_>
    <_>
      242. 246. 234.</_>
    <_>
      240. 235. 214.</_>
    <_>
      216. 210. 191.</_>
    <_>
      211. 203. 186.</_>
    <_>
      219. 229. 206.</_>
    <_>
      229. 241. 223.</_>
    <_>
      219. 255. 254.</_>
    <_>
      255. 255. 255.</_>
    <_>
      237. 248. 245.</_>
    <_>
      247. 254. 233.</_>
    <_>
      174. 185. 123.</_>
    <_>
      202. 206. 100.</_>
    <_>
      196. 200. 99.</_>
    <_>
      174. 184. 91.</_>
    <_>
      178. 189. 96.</_>
    <_>
      159. 172. 86.</_>
    <_>
      164. 171. 86.</_>
    <_>
      179. 190. 88.</_>
    <_>
      202. 212. 92.</_>
    <_>
      204. 214. 94.</_>
    <_>
      196. 206. 82.</_>
    <_>
      189. 199. 75.</_>
    <_>
      178. 188. 68.</_>
    <_>
      137. 148. 55.</_>
    <_>
      127. 136. 50.</_>
    <_>
      129. 143. 47.</_>
    <_>
      130. 147. 42.</_>
    <_>
      130. 148. 41.</_>
    <_>
      161. 174. 46.</_>
    <_>
      175. 187. 57.</_>
    <_>
      161. 180. 59.</_>
    <_>
      149. 166. 69.</_>
    <_>
      143. 152. 79.</_>
    <_>
      146. 159. 75.</_>
    <_>
      155. 169. 73.</_>
    <_>
      162. 180. 73.</_>
    <_>
      155. 172. 69.</_>
    <_>
      162. 174. 62.</_>
    <_>
      177. 193. 68.</_>
    <_>
      137. 160. 54.</_>
    <_>
      138. 158. 69.</_>
    <_>
      130. 150. 67.</_>
    <_>
      137. 147. 71.</_>
    <_>
      129. 145. 67.</_>
    <_>
      124. 140. 63.</_>
    <_>
      147. 162. 64.</_>
    <_>
      147. 168. 52.</_>
    <_>
      129. 151. 49.</_>
    <_>
      129. 144. 53.</_>
    <_>
      111. 124. 50.</_>
    <_>
      109. 121. 49.</_>
    <_>
      144. 160. 59.</_>
    <_>
      147. 160. 50.</_>
    <_>
      156. 167. 43.</_>
    <_>
      145. 161. 44.</_>
    <_>
      153. 173. 54.</_>
    <_>
      145. 165. 66.</_>
    <_>
      121. 132. 64.</_>
    <_>
      119. 136. 49.</_>
    <_>
      105. 124. 43.</_>
    <_>
      95. 104. 37.</_>
    <_>
      99. 103. 51.</_>
    <_>
      103. 105. 59.</_>
    <_>
      187. 185. 154.</_>
    <_>
      189. 186. 155.</_>
    <_>
      122. 127. 48.</_>
    <_>
      119. 127. 40.</_>
    <_>
      160. 165. 56.</_>
    <_>
      196. 199. 76.</_>
    <_>
      199. 206. 71.</_>
    <_>
      141. 162. 46.</_>
    <_>
      179. 201. 42.</_>
    <_>
      188. 207. 44.</_>
    <_>
      143. 169. 32.</_>
    <_>
      128. 150. 31.</_>
    <_>
      145. 174. 35.</_>
    <_>
      152. 180. 37.</_>
    <_>
      133. 160. 33.</_>
    <_>
      169. 195. 41.</_>
    <_>
      169. 190. 33.</_>
    <_>
      175. 198. 36.</_>
    <_>
      120. 148. 29.</_>
    <_>
      130. 153. 31.</_>
    <_>
      113. 135. 29.</_>
    <_>
      108. 129. 26.</_>
    <_>
      93. 110. 23.</_>
    <_>
      96. 107. 21.</_>
    <_>
      164. 168. 33.</_>
    <_>
      218. 224. 99.</_>
    <_>
      167. 168. 35.</_>
    <_>
      183. 193. 39.</_>
    <_>
      157. 168. 34.</_>
    <_>
      170. 179. 38.</_></support_vectors>
  <decision_functions>
    <_>
      <sv_count>202</sv_count>
      <rho>-2.1108901592370949e-01</rho>
      <alpha>
        4.2747372525949939e-01 4.7227461824012440e-01
        4.1260798176850855e-01 5.0427330157867645e-01
        6.5853194297393253e-02 4.4416169478010925e-01
        3.7479108692450591e-01 1.9528611587364630e-01
        1.4062397098310872e-01 3.1446879618447476e-01
        1.9648084272779007e-01 2.7148652260259459e-01
        6.7540025848446827e-01 1.7049401687529497e-01
        4.4701490236061142e-01 5.7604456772766643e-01
        4.0033876301197224e-01 6.8060125297315377e-01
        7.3450905308799586e-01 2.4036004464930336e-01
        4.0866644385613837e-01 1.7996635586420651e-01
        5.3255634420292841e-01 1.0741017422691254e-01
        4.7044815105262661e-01 6.9614775453714528e-01
        5.5831527855116547e-01 2.5018836009784218e-01
        7.7774134889810095e-02 2.8196579154763440e-01
        3.2286583823153837e-02 2.9921768292387774e-01
        4.0095488063965751e-01 1.4104041716542004e+00
        2.3353049956782762e-01 2.9955131767410736e-01
        5.3097611063495853e-01 3.1250631103362114e-01
        6.6929053976836206e-01 6.2572869429661215e-01
        6.2501096816465518e-01 4.3568972732349798e-01
        5.0927869275412749e-02 2.8509116992143274e-01
        1.1586645601657063e-01 6.0301107598554649e-01
        6.9102266445285909e-01 9.8124356341999608e-01
        4.4523472911262874e-01 7.8578007387483151e-01
        6.0393304204707510e-01 5.0836180303028999e-01
        4.2034596283067788e-01 5.4043077942321138e-01
        2.6124218531676469e-01 1.8832046224208648e-01
        6.5296579303433100e-01 2.8755313591731962e-01
        6.4838442390204543e-01 4.6699148832594961e-01
        1.3473738820456349e-01 3.7352489864617616e-01
        3.6443075864202656e-01 4.3591444878996743e-01
        4.7051709442847833e-01 2.7808222194834242e-01
        9.5467293422568766e-02 2.4817837057990136e-01
        5.2696545773298431e-01 2.1805148881041780e-01
        1.0521394054987449e-01 5.5619741523414135e-01
        6.1805778933759756e-02 5.0540745462055658e-01
        4.0798396729461239e-01 2.3973088723514932e-01
        1.9220042490815670e-01 5.0416274232125557e-01
        3.7798579998137127e-01 1.8506606652989704e-01
        2.3329046426215599e-01 1.9949054136951294e-01
        5.0426665147118788e-01 7.6727976673143583e-01
        1.2701307492266372e-02 4.5066037222471711e-01
        3.6207587121276125e-01 5.5973440467237179e-01
        5.8230850186281113e-01 1.6802522412329504e-01
        6.0271512436555852e-01 1.7798092590790920e-01
        3.2396470048055548e-01 3.7379749127920148e-01
        4.1948140654910071e-01 2.3954234535751223e-01
        2.1250828036352851e-01 4.6000737889473516e-02
        2.1537502317072182e-01 2.0503550763808637e-01
        2.7850960197868380e-01 2.6032160542596666e-01
        3.2868904541740018e-01 3.9883630467633535e-01
        3.6821440532035260e-02 1.6408464622627750e-01
        5.4767976918511041e-01 4.5122282939645009e-01
        6.6485409625864944e-01 4.5927396748383048e-01
        3.0032010680765792e-01 5.8870574979618240e-01
        2.7928536355132327e-01 1.7876584341903015e-01
        2.1364005731732244e-01 1.3691654841734557e-01
        1.5590380714296428e-01 8.3486422757179948e-02
        3.4974429485779496e-01 8.5687231501079694e-02
        6.4527326936518444e-03 2.7995983535698471e-01 10.
        3.6268364896368410e-01 4.4859074813601496e-01
        2.0592352378808670e-01 5.3535103374304926e-01
        6.6504147168164263e-01 6.3555188425346798e-01
        4.4354324525658795e-01 7.8515355000920073e-01
        -1.5933601702949385e+00 -9.9774549969879534e+00
        -1.2337297453393872e+00 -5.3389887010844905e-01
        -8.3726911414251448e-01 -7.6657518917718248e-01
        -6.2741670644779179e-01 -9.6139402971588783e-01
        -8.5890827866925856e-01 -2.7452839498924117e-02
        -2.2434732362783477e-01 -1.3718151354425723e-02
        -4.3352863281939558e-01 -5.9869799580758232e-01
        -1.3896358036490863e+00 -1.0875153994486015e+00
        -7.0368515049819469e-01 -6.2443413408649495e-01
        -5.2655243473834135e-01 -7.4321220228502605e-01
        -4.0561723655151566e-03 -6.7483667121381274e-01
        -8.3005893384279916e-01 -9.4280908775950256e-01
        -7.5980853910465440e-01 -8.3272484107011846e-01
        -6.6605463535044973e-01 -2.9092382240073822e-01
        -6.8645332127953851e-01 -5.8820164950777645e-02
        -5.9529408547692231e-01 -7.2520186087584693e-01
        -1.0221447828465648e+00 -6.4277230316194300e-01
        -5.5007665658908911e-01 -7.3983563578122569e-01
        -6.9835188202601339e-01 -7.7632136368216942e-01
        -1.0765472309247877e+00 -7.1936051764396391e-01
        -4.1033929097866723e-01 -6.1440404467735010e-01
        -7.8159058689874095e-01 -5.8837854593909089e-01
        -6.1108413559598007e-01 -3.3679433881698556e-02
        -7.4537772452394446e-01 -1.1038650164240298e+00
        -1.2102963895084728e+00 -5.3586109874250420e-01
        -1.0143264597251056e+00 -7.5060592225008760e-01
        -6.3651297333373213e-01 -1.0072808695489981e+00
        -8.2628612396875256e-01 -7.7249691092445405e-01
        -1.0825565500483885e+00 -8.4825489374552310e-01
        -1.0064882517525409e+00 -1.0208547088850555e+00
        -9.7739141322552137e-01 -5.3686485210420598e-01
        -9.9265075465659589e-02 -8.2564954999264273e-01
        -5.0992826077840547e-01 -4.7243279802173832e-01
        -1.0679912669742828e+00 -7.9953212657207229e-01
        -1.4916340025804470e-02 -4.0391926912301379e-01
        -6.2502605744005546e-01</alpha>
      <index>
        120 130 129 128 127 126 125 124 123 122 121 131 119 118 117 116
        115 114 113 112 111 142 141 140 139 110 138 137 136 135 134 133
        132 87 94 93 92 91 90 89 88 86 85 84 83 82 81 80 109 108 107 106
        105 104 103 143 102 101 100 99 98 97 96 95 185 184 183 182 181
        180 179 178 177 176 175 174 173 172 192 201 200 199 198 197 196
        195 194 193 171 191 190 189 188 187 186 149 155 154 153 152 151
        150 148 147 146 145 144 170 169 168 167 166 165 164 163 162 161
        160 159 158 157 156 0 72 73 74 75 76 77 78 79 19 20 21 22 23 24
        18 17 16 35 1 34 33 32 31 30 29 28 27 26 25 5 9 8 7 6 4 3 2 15
        14 13 12 11 10 58 57 56 55 59 54 53 52 51 67 71 70 69 68 50 66
        65 64 63 62 61 60 45 44 43 42 41 40 39 38 37 36 49 48 47 46</index></_></decision_functions></opencv_ml_svm>
</opencv_storage>
