<?xml version="1.0"?>
<opencv_storage>
<opencv_ml_svm>
  <format>3</format>
  <svmType>C_SVC</svmType>
  <kernel>
    <type>RBF</type>
    <gamma>1.0000000000000000e-02</gamma></kernel>
  <C>10.</C>
  <term_criteria><epsilon>1.1920928955078125e-07</epsilon>
    <iterations>1000</iterations></term_criteria>
  <var_count>3</var_count>
  <class_count>2</class_count>
  <class_labels type_id="opencv-matrix">
    <rows>2</rows>
    <cols>1</cols>
    <dt>i</dt>
    <data>
      0 1</data></class_labels>
  <sv_total>109</sv_total>
  <support_vectors>
    <_>
      0. 0. 0.</_>
    <_>
      195. 200. 199.</_>
    <_>
      93. 75. 188.</_>
    <_>
      185. 188. 196.</_>
    <_>
      70. 57. 167.</_>
    <_>
      84. 67. 182.</_>
    <_>
      86. 69. 184.</_>
    <_>
      89. 72. 187.</_>
    <_>
      85. 68. 183.</_>
    <_>
      83. 66. 181.</_>
    <_>
      59. 48. 150.</_>
    <_>
      78. 61. 176.</_>
    <_>
      94. 78. 186.</_>
    <_>
      54. 45. 142.</_>
    <_>
      64. 51. 159.</_>
    <_>
      62. 50. 156.</_>
    <_>
      65. 55. 162.</_>
    <_>
      55. 46. 132.</_>
    <_>
      60. 52. 135.</_>
    <_>
      62. 54. 137.</_>
    <_>
      70. 59. 152.</_>
    <_>
      72. 60. 156.</_>
    <_>
      85. 71. 167.</_>
    <_>
      89. 75. 171.</_>
    <_>
      88. 77. 173.</_>
    <_>
      0. 0. 0.</_>
    <_>
      47. 39. 132.</_>
    <_>
      0. 0. 0.</_>
    <_>
      46. 39. 120.</_>
    <_>
      54. 47. 128.</_>
    <_>
      73. 62. 155.</_>
    <_>
      56. 43. 141.</_>
    <_>
      53. 46. 131.</_>
    <_>
      62. 53. 144.</_>
    <_>
      78. 67. 159.</_>
    <_>
      71. 61. 137.</_>
    <_>
      59. 53. 124.</_>
    <_>
      50. 44. 115.</_>
    <_>
      133. 135. 145.</_>
    <_>
      142. 144. 154.</_>
    <_>
      81. 71. 154.</_>
    <_>
      127. 127. 143.</_>
    <_>
      130. 132. 143.</_>
    <_>
      159. 162. 170.</_>
    <_>
      159. 161. 169.</_>
    <_>
      119. 123. 142.</_>
    <_>
      72. 60. 156.</_>
    <_>
      73. 62. 155.</_>
    <_>
      149. 150. 164.</_>
    <_>
      185. 188. 193.</_>
    <_>
      188. 191. 195.</_>
    <_>
      195. 200. 199.</_>
    <_>
      196. 201. 200.</_>
    <_>
      63. 68. 67.</_>
    <_>
      65. 65. 65.</_>
    <_>
      255. 255. 255.</_>
    <_>
      60. 60. 60.</_>
    <_>
      58. 60. 61.</_>
    <_>
      45. 47. 48.</_>
    <_>
      48. 51. 55.</_>
    <_>
      135. 142. 145.</_>
    <_>
      44. 45. 43.</_>
    <_>
      42. 43. 41.</_>
    <_>
      51. 51. 51.</_>
    <_>
      80. 81. 79.</_>
    <_>
      104. 105. 103.</_>
    <_>
      62. 66. 67.</_>
    <_>
      114. 119. 122.</_>
    <_>
      163. 168. 169.</_>
    <_>
      100. 103. 111.</_>
    <_>
      97. 92. 93.</_>
    <_>
      120. 123. 127.</_>
    <_>
      145. 148. 152.</_>
    <_>
      153. 158. 161.</_>
    <_>
      101. 96. 97.</_>
    <_>
      110. 109. 111.</_>
    <_>
      154. 159. 162.</_>
    <_>
      92. 87. 88.</_>
    <_>
      166. 170. 171.</_>
    <_>
      169. 173. 174.</_>
    <_>
      173. 177. 178.</_>
    <_>
      172. 176. 177.</_>
    <_>
      129. 131. 131.</_>
    <_>
      64. 65. 63.</_>
    <_>
      75. 73. 73.</_>
    <_>
      73. 71. 71.</_>
    <_>
      67. 72. 71.</_>
    <_>
      74. 76. 77.</_>
    <_>
      77. 79. 80.</_>
    <_>
      31. 28. 23.</_>
    <_>
      24. 21. 17.</_>
    <_>
      190. 194. 199.</_>
    <_>
      31. 26. 23.</_>
    <_>
      40. 36. 31.</_>
    <_>
      36. 32. 27.</_>
    <_>
      35. 33. 33.</_>
    <_>
      29. 28. 30.</_>
    <_>
      96. 105. 109.</_>
    <_>
      102. 111. 115.</_>
    <_>
      109. 118. 122.</_>
    <_>
      104. 115. 119.</_>
    <_>
      91. 100. 104.</_>
    <_>
      82. 88. 93.</_>
    <_>
      143. 144. 154.</_>
    <_>
      138. 140. 151.</_>
    <_>
      158. 161. 169.</_>
    <_>
      157. 160. 168.</_>
    <_>
      165. 167. 175.</_>
    <_>
      174. 178. 183.</_></support_vectors>
  <decision_functions>
    <_>
      <sv_count>109</sv_count>
      <rho>-3.5628968843267100e-01</rho>
      <alpha>
        1.6337102468980680e-02 4.7606754802313036e+00
        4.5586260713710125e+00 1.4190285905223973e-01
        6.4027190682608426e-01 2.2384402668043851e-01
        2.2415186707203513e-01 3.8614649388744837e-01
        2.3707010973395873e-01 7.9572586208625617e-02
        2.8516064469609231e-01 2.2176449042954449e-01
        1.6597628024223562e-01 1.5721476224885142e-01
        3.4078082758328154e-01 3.6459764497975033e-01
        2.9321672845131286e-01 2.3485585905929215e-01
        1.1708630025440497e-01 3.3962125386617337e-01
        2.9152209342681534e-01 5.7950510875385192e-02
        4.0618489062253199e-01 1.1709084462720232e-02
        2.1370971733286087e-02 2.0797639956238537e-01 10.
        2.2372248214525903e-01 6.8502909068877155e-02
        2.3117147754073590e+00 3.0950553694020805e-02
        3.8818922329369299e-01 8.5511734204753154e+00
        2.6948525064699291e-01 10. 4.7458344641807443e-01 10.
        2.1139457479205370e-02 6.0185544291064791e-02
        3.7483928179085779e-01 4.0307107624491556e-01
        4.6902398585745719e-01 2.3271907951937842e-02
        1.3027666665773666e-01 1.7112367508740847e-01
        1.7734947536862786e-01 7.5555886805757255e-02
        3.9471794058472187e-01 3.0796583347182556e+00
        5.1258165878180273e-02 6.4848540048326325e-02
        4.7209441365226798e-02 3.7012188659665235e-01
        2.5493458239009859e-01 2.4256847731453079e-01
        3.3710536059687030e-01 3.6475213419900199e-01
        2.3137587354933153e-02 3.7022845276571203e-01
        5.1271552046854685e-02 1.7668793507692931e-02
        2.1832470559791452e-02 3.2224208032367668e-01
        4.6260839054177305e-01 8.6265947522072950e-02
        5.5941932384419868e-01 1.2542632055353176e-01
        2.0011828331838746e-01 2.1906498571407024e-01
        1.2983435766792265e-01 1.0130332475212156e-01
        6.2921539144291883e-02 -9.4911868849636094e-01
        -9.9932044119085770e+00 -6.2715456043983209e-01
        -1.3608323336485086e+00 -5.5242584186298938e-01
        -6.6600107594087354e-02 -3.7078795385131896e-02
        -2.6602043534555548e+00 -1.0815980142445738e+00
        -1.0340745269634786e+00 -8.8736078188003564e-01 -10.
        -6.5558627372591299e-02 -6.4898531610610766e-01
        -4.4938956716077039e-01 -1.2062040006406383e-01
        -2.3148492157558281e-01 -1.0724545884369921e-01
        -1.2837293289291951e-02 -2.5145965188064601e-01
        -8.5018989271410905e-01 -8.3545709775409660e-01 -10.
        -2.3851794167648618e-01 -10. -7.1446910546111564e-01
        -5.0990773464433453e-02 -8.9976683595109392e+00
        -3.4151497294547339e-01 -4.4310786782271377e-01
        -5.0269088072784407e-01 -1.2686605110438259e-01
        -4.3054530584583844e-01 -1.3926355111619266e+00
        -4.7543745908114460e-01 -9.6230998184595989e-02
        -3.3670866839265123e-01</alpha>
      <index>
        54 51 52 53 55 56 63 64 65 66 67 68 69 70 71 72 73 57 58 59 60
        61 62 43 44 41 0 38 39 40 42 48 49 50 47 45 46 98 99 100 101 102
        103 97 104 105 106 93 91 92 94 95 96 107 108 74 75 76 77 78 79
        80 81 82 83 90 84 85 86 89 88 87 26 27 28 25 31 32 33 34 35 36
        37 30 29 10 5 6 7 8 9 13 11 12 1 2 3 4 17 21 22 23 24 18 19 20
        14 15 16</index></_></decision_functions></opencv_ml_svm>
</opencv_storage>
