<?xml version="1.0"?>
<opencv_storage>
<opencv_ml_svm>
  <format>3</format>
  <svmType>C_SVC</svmType>
  <kernel>
    <type>RBF</type>
    <gamma>1.0000000000000000e-02</gamma></kernel>
  <C>10.</C>
  <term_criteria><epsilon>1.1920928955078125e-07</epsilon>
    <iterations>1000</iterations></term_criteria>
  <var_count>3</var_count>
  <class_count>2</class_count>
  <class_labels type_id="opencv-matrix">
    <rows>2</rows>
    <cols>1</cols>
    <dt>i</dt>
    <data>
      0 1</data></class_labels>
  <sv_total>343</sv_total>
  <support_vectors>
    <_>
      0. 0. 0.</_>
    <_>
      133. 123. 176.</_>
    <_>
      142. 146. 187.</_>
    <_>
      192. 197. 230.</_>
    <_>
      127. 128. 162.</_>
    <_>
      161. 171. 201.</_>
    <_>
      174. 183. 221.</_>
    <_>
      215. 226. 194.</_>
    <_>
      215. 224. 204.</_>
    <_>
      223. 217. 222.</_>
    <_>
      188. 188. 202.</_>
    <_>
      190. 182. 192.</_>
    <_>
      177. 165. 171.</_>
    <_>
      158. 147. 125.</_>
    <_>
      103. 94. 50.</_>
    <_>
      82. 76. 65.</_>
    <_>
      93. 82. 85.</_>
    <_>
      95. 78. 91.</_>
    <_>
      99. 90. 93.</_>
    <_>
      89. 86. 48.</_>
    <_>
      114. 111. 66.</_>
    <_>
      130. 129. 95.</_>
    <_>
      135. 135. 99.</_>
    <_>
      145. 148. 103.</_>
    <_>
      160. 163. 138.</_>
    <_>
      171. 174. 148.</_>
    <_>
      177. 190. 158.</_>
    <_>
      182. 201. 132.</_>
    <_>
      189. 199. 187.</_>
    <_>
      208. 215. 188.</_>
    <_>
      162. 168. 215.</_>
    <_>
      108. 103. 142.</_>
    <_>
      97. 99. 109.</_>
    <_>
      113. 117. 135.</_>
    <_>
      119. 121. 155.</_>
    <_>
      130. 122. 153.</_>
    <_>
      116. 105. 115.</_>
    <_>
      97. 86. 102.</_>
    <_>
      147. 137. 190.</_>
    <_>
      146. 150. 199.</_>
    <_>
      181. 175. 222.</_>
    <_>
      169. 173. 214.</_>
    <_>
      180. 184. 233.</_>
    <_>
      133. 134. 155.</_>
    <_>
      110. 113. 111.</_>
    <_>
      154. 151. 197.</_>
    <_>
      116. 110. 145.</_>
    <_>
      104. 95. 116.</_>
    <_>
      190. 197. 254.</_>
    <_>
      191. 199. 236.</_>
    <_>
      199. 191. 228.</_>
    <_>
      188. 181. 226.</_>
    <_>
      193. 186. 221.</_>
    <_>
      179. 165. 213.</_>
    <_>
      174. 166. 203.</_>
    <_>
      171. 156. 160.</_>
    <_>
      164. 144. 163.</_>
    <_>
      147. 129. 142.</_>
    <_>
      116. 112. 101.</_>
    <_>
      107. 107. 95.</_>
    <_>
      115. 119. 77.</_>
    <_>
      133. 138. 117.</_>
    <_>
      151. 156. 155.</_>
    <_>
      158. 166. 159.</_>
    <_>
      161. 173. 167.</_>
    <_>
      169. 179. 167.</_>
    <_>
      180. 202. 174.</_>
    <_>
      182. 194. 198.</_>
    <_>
      195. 203. 196.</_>
    <_>
      202. 214. 194.</_>
    <_>
      198. 206. 199.</_>
    <_>
      203. 203. 227.</_>
    <_>
      189. 193. 164.</_>
    <_>
      187. 188. 172.</_>
    <_>
      186. 175. 178.</_>
    <_>
      161. 152. 209.</_>
    <_>
      208. 190. 255.</_>
    <_>
      177. 170. 231.</_>
    <_>
      0. 0. 0.</_>
    <_>
      192. 189. 238.</_>
    <_>
      0. 0. 0.</_>
    <_>
      148. 142. 199.</_>
    <_>
      119. 113. 144.</_>
    <_>
      0. 0. 0.</_>
    <_>
      108. 102. 127.</_>
    <_>
      132. 126. 167.</_>
    <_>
      165. 163. 239.</_>
    <_>
      135. 131. 150.</_>
    <_>
      0. 0. 0.</_>
    <_>
      153. 145. 182.</_>
    <_>
      163. 157. 204.</_>
    <_>
      172. 177. 216.</_>
    <_>
      0. 0. 0.</_>
    <_>
      0. 0. 0.</_>
    <_>
      0. 0. 0.</_>
    <_>
      185. 185. 255.</_>
    <_>
      164. 175. 227.</_>
    <_>
      184. 190. 249.</_>
    <_>
      151. 158. 201.</_>
    <_>
      132. 142. 166.</_>
    <_>
      83. 90. 105.</_>
    <_>
      126. 134. 141.</_>
    <_>
      135. 142. 151.</_>
    <_>
      169. 174. 183.</_>
    <_>
      179. 187. 187.</_>
    <_>
      185. 195. 219.</_>
    <_>
      211. 212. 222.</_>
    <_>
      219. 212. 227.</_>
    <_>
      220. 221. 242.</_>
    <_>
      211. 220. 224.</_>
    <_>
      203. 204. 214.</_>
    <_>
      177. 171. 188.</_>
    <_>
      165. 157. 168.</_>
    <_>
      119. 118. 84.</_>
    <_>
      107. 99. 110.</_>
    <_>
      59. 62. 46.</_>
    <_>
      70. 76. 51.</_>
    <_>
      103. 112. 99.</_>
    <_>
      145. 157. 191.</_>
    <_>
      132. 139. 182.</_>
    <_>
      177. 189. 237.</_>
    <_>
      178. 195. 234.</_>
    <_>
      156. 163. 218.</_>
    <_>
      191. 184. 245.</_>
    <_>
      182. 173. 246.</_>
    <_>
      179. 177. 196.</_>
    <_>
      147. 147. 177.</_>
    <_>
      155. 166. 42.</_>
    <_>
      167. 164. 186.</_>
    <_>
      151. 144. 211.</_>
    <_>
      162. 154. 225.</_>
    <_>
      140. 136. 161.</_>
    <_>
      177. 161. 208.</_>
    <_>
      196. 205. 184.</_>
    <_>
      190. 198. 157.</_>
    <_>
      203. 204. 208.</_>
    <_>
      169. 167. 149.</_>
    <_>
      203. 193. 186.</_>
    <_>
      181. 171. 177.</_>
    <_>
      82. 72. 85.</_>
    <_>
      80. 73. 86.</_>
    <_>
      73. 70. 66.</_>
    <_>
      82. 84. 84.</_>
    <_>
      94. 98. 87.</_>
    <_>
      121. 121. 133.</_>
    <_>
      135. 141. 100.</_>
    <_>
      167. 165. 134.</_>
    <_>
      184. 195. 157.</_>
    <_>
      193. 202. 212.</_>
    <_>
      169. 161. 232.</_>
    <_>
      126. 121. 183.</_>
    <_>
      117. 114. 170.</_>
    <_>
      137. 135. 201.</_>
    <_>
      123. 118. 169.</_>
    <_>
      136. 132. 191.</_>
    <_>
      115. 110. 161.</_>
    <_>
      106. 105. 149.</_>
    <_>
      128. 128. 188.</_>
    <_>
      160. 168. 227.</_>
    <_>
      172. 180. 239.</_>
    <_>
      194. 197. 171.</_>
    <_>
      164. 153. 155.</_>
    <_>
      148. 147. 119.</_>
    <_>
      120. 111. 121.</_>
    <_>
      72. 77. 76.</_>
    <_>
      71. 79. 56.</_>
    <_>
      91. 94. 92.</_>
    <_>
      111. 124. 92.</_>
    <_>
      131. 146. 95.</_>
    <_>
      155. 175. 133.</_>
    <_>
      169. 185. 154.</_>
    <_>
      184. 192. 205.</_>
    <_>
      198. 204. 181.</_>
    <_>
      199. 195. 220.</_>
    <_>
      204. 194. 237.</_>
    <_>
      137. 143. 184.</_>
    <_>
      143. 142. 206.</_>
    <_>
      190. 201. 245.</_>
    <_>
      106. 113. 133.</_>
    <_>
      127. 134. 167.</_>
    <_>
      152. 162. 210.</_>
    <_>
      153. 156. 217.</_>
    <_>
      161. 162. 200.</_>
    <_>
      182. 183. 241.</_>
    <_>
      226. 210. 255.</_>
    <_>
      213. 199. 255.</_>
    <_>
      201. 187. 251.</_>
    <_>
      208. 195. 209.</_>
    <_>
      193. 182. 155.</_>
    <_>
      187. 171. 158.</_>
    <_>
      177. 164. 156.</_>
    <_>
      161. 151. 134.</_>
    <_>
      147. 134. 126.</_>
    <_>
      138. 120. 143.</_>
    <_>
      129. 117. 139.</_>
    <_>
      121. 109. 139.</_>
    <_>
      208. 210. 174.</_>
    <_>
      220. 218. 177.</_>
    <_>
      225. 214. 247.</_>
    <_>
      208. 214. 167.</_>
    <_>
      205. 204. 224.</_>
    <_>
      194. 207. 145.</_>
    <_>
      183. 206. 152.</_>
    <_>
      179. 196. 183.</_>
    <_>
      175. 187. 193.</_>
    <_>
      166. 174. 187.</_>
    <_>
      156. 161. 182.</_>
    <_>
      143. 150. 129.</_>
    <_>
      134. 137. 128.</_>
    <_>
      117. 115. 107.</_>
    <_>
      102. 103. 107.</_>
    <_>
      85. 90. 75.</_>
    <_>
      158. 160. 225.</_>
    <_>
      219. 212. 255.</_>
    <_>
      206. 218. 242.</_>
    <_>
      200. 209. 247.</_>
    <_>
      213. 220. 237.</_>
    <_>
      197. 203. 255.</_>
    <_>
      135. 126. 177.</_>
    <_>
      170. 161. 217.</_>
    <_>
      196. 190. 255.</_>
    <_>
      178. 184. 213.</_>
    <_>
      191. 188. 233.</_>
    <_>
      209. 207. 197.</_>
    <_>
      186. 183. 179.</_>
    <_>
      154. 149. 151.</_>
    <_>
      143. 137. 168.</_>
    <_>
      141. 150. 140.</_>
    <_>
      179. 189. 172.</_>
    <_>
      201. 206. 185.</_>
    <_>
      214. 216. 216.</_>
    <_>
      219. 219. 207.</_>
    <_>
      213. 209. 208.</_>
    <_>
      218. 209. 196.</_>
    <_>
      209. 197. 249.</_>
    <_>
      186. 186. 232.</_>
    <_>
      206. 208. 242.</_>
    <_>
      192. 185. 228.</_>
    <_>
      169. 176. 201.</_>
    <_>
      164. 173. 207.</_>
    <_>
      206. 210. 255.</_>
    <_>
      211. 213. 254.</_>
    <_>
      221. 219. 117.</_>
    <_>
      217. 217. 117.</_>
    <_>
      218. 217. 119.</_>
    <_>
      223. 223. 123.</_>
    <_>
      0. 0. 0.</_>
    <_>
      235. 234. 136.</_>
    <_>
      0. 0. 0.</_>
    <_>
      0. 0. 0.</_>
    <_>
      0. 0. 0.</_>
    <_>
      0. 0. 0.</_>
    <_>
      151. 156. 25.</_>
    <_>
      162. 176. 28.</_>
    <_>
      173. 191. 38.</_>
    <_>
      169. 186. 35.</_>
    <_>
      183. 201. 42.</_>
    <_>
      138. 138. 30.</_>
    <_>
      136. 136. 28.</_>
    <_>
      166. 173. 28.</_>
    <_>
      174. 176. 40.</_>
    <_>
      194. 200. 45.</_>
    <_>
      145. 165. 29.</_>
    <_>
      157. 175. 38.</_>
    <_>
      159. 178. 32.</_>
    <_>
      165. 184. 37.</_>
    <_>
      128. 141. 33.</_>
    <_>
      116. 127. 31.</_>
    <_>
      239. 239. 123.</_>
    <_>
      121. 125. 20.</_>
    <_>
      128. 128. 22.</_>
    <_>
      110. 121. 24.</_>
    <_>
      135. 150. 35.</_>
    <_>
      117. 131. 25.</_>
    <_>
      124. 139. 31.</_>
    <_>
      133. 152. 25.</_>
    <_>
      69. 60. 51.</_>
    <_>
      94. 90. 66.</_>
    <_>
      187. 184. 116.</_>
    <_>
      125. 125. 31.</_>
    <_>
      105. 110. 31.</_>
    <_>
      175. 173. 108.</_>
    <_>
      98. 93. 68.</_>
    <_>
      65. 56. 52.</_>
    <_>
      149. 154. 55.</_>
    <_>
      152. 167. 39.</_>
    <_>
      126. 122. 81.</_>
    <_>
      117. 113. 64.</_>
    <_>
      172. 169. 101.</_>
    <_>
      109. 107. 29.</_>
    <_>
      227. 226. 128.</_>
    <_>
      255. 255. 255.</_>
    <_>
      225. 227. 121.</_>
    <_>
      118. 119. 21.</_>
    <_>
      112. 113. 33.</_>
    <_>
      239. 230. 132.</_>
    <_>
      141. 137. 72.</_>
    <_>
      102. 87. 68.</_>
    <_>
      82. 78. 59.</_>
    <_>
      189. 183. 118.</_>
    <_>
      238. 226. 124.</_>
    <_>
      176. 190. 48.</_>
    <_>
      153. 162. 52.</_>
    <_>
      218. 219. 115.</_>
    <_>
      187. 182. 83.</_>
    <_>
      96. 103. 22.</_>
    <_>
      159. 167. 43.</_>
    <_>
      214. 212. 118.</_>
    <_>
      184. 184. 40.</_>
    <_>
      255. 255. 207.</_>
    <_>
      180. 188. 33.</_>
    <_>
      221. 219. 117.</_>
    <_>
      221. 219. 124.</_>
    <_>
      254. 255. 199.</_>
    <_>
      224. 224. 124.</_>
    <_>
      206. 207. 97.</_>
    <_>
      222. 221. 117.</_>
    <_>
      157. 165. 41.</_>
    <_>
      105. 104. 23.</_>
    <_>
      230. 235. 120.</_>
    <_>
      182. 182. 38.</_>
    <_>
      244. 246. 200.</_>
    <_>
      138. 139. 41.</_>
    <_>
      112. 113. 15.</_>
    <_>
      162. 162. 48.</_>
    <_>
      230. 232. 113.</_>
    <_>
      180. 184. 48.</_>
    <_>
      170. 180. 50.</_>
    <_>
      102. 116. 22.</_>
    <_>
      191. 199. 39.</_>
    <_>
      189. 195. 46.</_>
    <_>
      140. 148. 24.</_>
    <_>
      128. 133. 34.</_>
    <_>
      151. 162. 40.</_>
    <_>
      140. 155. 40.</_>
    <_>
      126. 142. 24.</_>
    <_>
      133. 154. 28.</_>
    <_>
      238. 234. 116.</_>
    <_>
      218. 214. 96.</_>
    <_>
      153. 149. 37.</_>
    <_>
      170. 189. 40.</_>
    <_>
      159. 178. 37.</_>
    <_>
      187. 193. 38.</_></support_vectors>
  <decision_functions>
    <_>
      <sv_count>343</sv_count>
      <rho>4.3195693734560792e-01</rho>
      <alpha>
        9.2285655704114500e-01 3.6647472024666328e-01
        1.1489358604868916e+00 7.8468631420578783e-01
        4.1134915434197428e+00 2.1619913623120031e+00
        6.5724656722028172e+00 9.8609015841133862e-01
        9.0966931846474208e-01 9.6950731865285433e-01
        6.1717479000542086e-01 4.4632404852035285e-01
        2.3489790230848787e-01 1.2302465332207220e+00
        3.0885262886745990e-01 8.4082855361690390e-01
        2.0615849002444583e-01 1.4213460768269617e+00
        8.3977687416397129e-01 2.6961165440128021e-01
        2.8040285935991960e-01 1.4316750868928487e+00
        1.2880013587064393e-02 6.8739537732759287e-02
        3.3233082254579882e-01 3.6502487348790275e-01
        3.5742247705357708e+00 3.9552114710526864e+00
        3.2066889200171728e-01 1.7181334417022159e-01 10.
        7.3298961134668272e-01 3.4007670542152968e+00
        1.2366064746561325e+00 9.6199659982255076e-02
        1.2364673070877716e+00 5.2956476315465373e-01
        3.7555514786727877e+00 8.5485647609590154e-01
        6.5173815259483914e-01 7.6035408946435963e+00
        4.2046611440967374e-01 9.4952595177047483e-01
        6.9554423517943176e-01 10. 1.4315414891394487e+00
        1.5538134934454566e+00 10. 1.1163685950829609e+00
        3.0839631279512933e+00 7.7448715285143099e-01
        1.5730472807871462e-01 4.5356877444480870e-01
        9.4338186824169290e-01 4.8324210539604623e-01
        7.6710751058947002e-01 3.1090966738368497e-01
        2.5799975381174484e-02 5.7392518234736123e-01
        1.5983183109817861e-01 6.0697137965101100e-01
        3.7615899178889101e-01 1.1396712295394304e-01
        1.4241193591628803e-01 5.3969178582556099e-01
        2.3729291948537623e-02 1.2249633885477107e-01
        8.1541301034189517e-01 7.0675833637394647e-01
        7.5581175292903391e-01 7.0847277648459672e-01
        5.2054453984267468e-01 1.1274773260201045e+00
        9.5127998190963503e-01 1.3403103179597256e-01
        7.2228553448440302e-01 3.4358798087621928e-01
        3.4532233378291743e-01 8.4334668968049786e-01
        9.6958705794625577e-01 1.0937112242481497e+00
        3.0247648655816373e-01 6.6419228939857378e-01
        2.7480950119499215e-01 2.4638623706343105e-01
        1.1729994260040344e-01 3.0242152690445229e-01
        2.6707336643513147e-01 10. 1.0480189334237564e+00 10. 10. 10.
        10. 10. 8.6796299461782933e-01 1.3185427788088558e-01
        7.7004912362451550e-01 -3.5089461870963079e-01
        -9.5694066383578527e+00 -4.0053500476814219e-02
        -6.6204347507676092e-02 -10. -1.0338832648071175e-01 -10.
        -2.7302909038924850e-01 -10. -10. -10. -9.9814108844406069e-01
        -6.2868871862440473e-02 -1.3865367194909148e-01
        -2.7130918764243883e-01 -1.0089578177975025e-01
        -4.0757636564247435e-01 -1.5471754018832501e-01
        -3.1121376604921225e-01 -1.2670890951793504e-01
        -4.8980086363051539e-02 -1.4019097668578165e-01
        -2.8552922613338549e-01 -1.9755704277744948e-01
        -3.8910456515809155e-01 -1.7421777044793979e-01
        -4.1723639830257164e-01 -1.8058008838144837e-01
        -4.4465837176927953e-02 -6.2599691984808303e-02
        -2.6557091280739459e-01 -3.7323740188591642e-01
        -2.7630966608879876e-01 -1.9764032181101640e-01
        -3.4408888199931298e-01 -2.5891945246594761e-01 -10.
        -2.5836116199163661e-01 -2.8353935487486892e-01
        -1.0804501751619050e-01 -3.4936771421141655e-01
        -4.1787931551815150e-01 -5.0056687158593860e-01
        -2.4061746223535074e-02 -8.3045209036895246e-02
        -8.1271261442449227e-02 -2.8778916205308758e-01
        -3.5499290686989293e-01 -1.2108905387391964e+00
        -1.0425282799959025e-01 -1.3912424839626032e+00
        -2.7147078610560182e-01 -2.0205769241639526e-01
        -7.1658955306715816e-02 -3.3466389989414147e-01
        -3.4075290597637137e-01 -2.1681913193619645e-01
        -3.8546697106680211e-02 -2.7983321287693352e-01
        -1.8380329638966275e-01 -4.9554133946871270e-01
        -1.4452512182634872e-01 -5.8621432890530134e-01
        -6.0736313269761038e+00 -8.6346702053035318e-01
        -1.7136889389392956e-01 -3.2837365430491883e-01
        -2.9056128190291166e+00 -5.6259764333180651e-01
        -3.1730992133009472e-01 -3.5088025147686952e-01
        -3.4783627700632908e-01 -1.8661244016752998e-01
        -1.9565516535889127e-01 -2.4440467348243430e-01
        -3.3282125107266192e-01 -7.5904793964949063e-02
        -2.8102927274052586e-01 -1.8280266604192402e-01
        -1.2790463293777693e-01 -2.1628072002162022e-01
        -2.0155247088826883e-01 -5.5295473774464687e-01
        -2.7676497821700957e-01 -2.9975289212387873e-01
        -1.9314928520166338e-01 -2.1290534281849571e-02
        -8.6478218913341315e-02 -7.3706209564495168e-02
        -9.6023095982848750e-02 -3.2291184167924075e-01
        -2.2993582178862082e-01 -3.9213875123084513e-01
        -1.9023802149326899e-01 -2.4695911292156872e-01
        -3.2279602755289039e-01 -1.4659816961826883e-01
        -4.4262471572603634e-01 -4.3212759337586604e-01
        -1.7700580537626887e-01 -1.3952683833300525e-01
        -2.2533123859765819e-01 -2.2575970236389148e-01
        -2.0985748144268981e-01 -2.6542731266180009e-01
        -1.9127981213192122e-01 -1.8285655598200731e-01
        -3.6986427850042602e-01 -2.9998647919438270e-01
        -1.3870419655162691e-01 -2.9754314092313827e-01
        -3.0169745271656945e-01 -3.0144618281640112e-01
        -4.2643480529008770e-01 -1.9662611299608462e-01
        -2.6282358460053312e-01 -9.2151110541233261e-02
        -1.9981584669526203e-01 -1.9554802361786358e-01
        -3.9148073732374500e-02 -3.8347335037007838e-02
        -7.6185740526486842e-02 -3.1425901621786878e-01
        -1.6786425676976441e-01 -8.3481646112765567e-02
        -3.1074802736961266e-01 -1.6221425842277523e-01
        -1.7455166848858819e-01 -1.5145429276495123e-01
        -9.8207653032434672e-03 -2.6427653342978230e-01
        -1.1404559472031445e-01 -3.0462864342718687e-01
        -4.0620362594636306e-02 -4.1791165781029288e-02
        -1.1197481986209239e-01 -6.4498745844904615e-01
        -6.3860157983636645e-02 -2.4898891535762571e-01
        -2.8360067417184598e-01 -2.8103770826369112e-01
        -3.7722941579251223e-01 -2.1419134641902138e-01
        -1.6837453364131716e-01 -7.4979629469323350e-02
        -4.8065519254832760e-02 -1.8382388299389926e-01
        -2.5692569726255143e-01 -1.9219269269525147e-01
        -1.9066727024714167e-02 -4.0864969324769795e-02
        -3.8383954923684627e-01 -2.6004598814917940e-01
        -2.1676837298902216e-01 -9.0839356150265893e-02 -10. -10. -10.
        -10. -2.1027015248655384e-01 -1.5071487860197011e-01
        -1.7379437130497830e-01 -2.5130274466944574e-02
        -3.0825513461933041e-01 -2.9351320790336155e-01
        -1.2228441372064969e-01 -3.9043457451840707e-02
        -5.3233361587358544e-02 -2.1623814686465798e-01
        -3.9718303457460280e-01 -3.8163636884609298e-01
        -3.3276098513440910e-01 -1.6713722218003316e-01
        -2.4013206756432623e-01 -3.2419929741694187e-01
        -1.3109126133130403e-01 -1.5438685767470484e-01
        -3.7216110206855196e-01 -3.1088771269334869e-01
        -3.2080309229937165e-01 -1.1517203744695979e-01
        -2.9595056525058572e-01 -6.6309311842754182e-02
        -1.0860531446660027e+00 -1.9943573884577825e-01
        -3.4530567959000791e-01 -1.4698200366632527e-01
        -3.3543138864502214e-01 -4.5933786262490839e-02
        -5.6909781637201992e-02 -6.3380006873149472e-02
        -4.4306749868179240e-01 -1.6165746193846284e-01
        -3.7704601543716310e-01 -2.5545367727302060e-01
        -7.1014221044398945e-02 -2.3848306274773351e-01
        -1.2396535039621041e-01 -3.3250092704180856e-01
        -5.9010352858208930e-02 -3.5944785100860832e-01
        -2.8086997015042603e-01 -2.2474290942383623e-02
        -3.2045615279082490e-01 -4.0966821783130508e-01
        -1.1138226648708136e-01 -2.1939360644609579e-02
        -3.1139296813313522e-01 -4.0064232749809298e-01
        -3.4959337878579255e-01 -2.6878530830984793e-01
        -3.8010255895860290e-01 -4.4890860775443286e-01
        -4.3639926600847573e-01 -2.1153724065873650e-01
        -3.2382560644355629e-01 -3.9616069451125524e-01
        -4.1011181180820622e-01 -2.9058162645927516e-01
        -2.3618735561346715e-01 -3.8031901340762253e-01
        -4.5700276671060536e-01 -2.3589465724650194e-01
        -2.0704168768796100e-01 -4.8248314345077609e-01
        -2.1881647722881462e-01 -2.7883336805939396e-01
        -1.8580046543623352e-01 -3.4061895261796016e-01
        -2.3950984997523803e-01 -2.0663849503189019e-01
        -1.5922413418579320e-01 -8.4267284988602531e-02
        -1.7123596509997027e-01 -1.4774624262052519e-01
        -3.5007411901552399e-01 -5.0346509866911737e-01
        -4.5978323203171062e-01 -2.6585772415223513e-01
        -2.2006601590869628e-02 -9.3110204097724802e-02
        -1.7894428623744957e-01 -3.5333949693252281e-01
        -2.0577614591881857e-01 -3.5708851703980593e-01</alpha>
      <index>
        281 282 283 284 285 286 287 288 277 276 278 279 280 292 293 294
        295 296 297 289 290 291 275 272 273 274 316 317 318 319 312 313
        314 315 320 321 301 298 299 300 307 308 309 310 311 304 302 303
        305 306 259 257 258 261 260 268 269 266 267 271 270 262 263 264
        265 340 341 336 333 334 335 337 338 339 342 328 325 326 327 323
        322 324 331 332 329 330 254 253 251 247 0 246 248 249 250 252
        255 256 84 83 82 81 80 79 78 77 88 94 93 92 91 90 89 87 86 85 74
        73 72 71 76 75 121 125 124 123 122 120 119 118 117 116 129 128
        127 126 99 103 102 101 100 104 98 97 96 95 115 114 113 112 111
        110 109 108 107 106 105 16 23 22 21 20 19 18 17 15 14 13 12 11
        10 36 35 34 33 32 31 30 29 28 27 26 25 24 2 4 3 1 9 8 7 6 5 37
        58 57 56 55 54 53 52 51 69 68 67 66 65 50 64 63 62 61 60 59 46
        45 44 43 42 41 47 40 39 38 49 48 70 222 221 215 214 213 212 216
        211 210 209 208 207 206 205 219 220 223 218 217 236 235 234 233
        232 231 239 245 244 243 242 241 240 238 237 226 225 224 229 230
        228 227 156 159 158 157 155 154 153 152 151 150 149 162 166 165
        164 163 161 160 135 139 138 137 136 140 134 133 132 131 148 147
        146 167 145 144 143 142 141 185 192 191 190 189 188 187 186 193
        184 199 204 203 202 201 200 198 197 196 195 194 174 177 176 175
        173 172 171 170 169 168 180 183 182 181 130 179 178</index></_></decision_functions></opencv_ml_svm>
</opencv_storage>
