<?xml version="1.0"?>
<opencv_storage>
<opencv_ml_svm>
  <format>3</format>
  <svmType>C_SVC</svmType>
  <kernel>
    <type>RBF</type>
    <gamma>1.0000000000000000e-02</gamma></kernel>
  <C>10.</C>
  <term_criteria><epsilon>1.1920928955078125e-07</epsilon>
    <iterations>1000</iterations></term_criteria>
  <var_count>3</var_count>
  <class_count>2</class_count>
  <class_labels type_id="opencv-matrix">
    <rows>2</rows>
    <cols>1</cols>
    <dt>i</dt>
    <data>
      0 1</data></class_labels>
  <sv_total>356</sv_total>
  <support_vectors>
    <_>
      0. 0. 0.</_>
    <_>
      185. 125. 73.</_>
    <_>
      198. 122. 73.</_>
    <_>
      185. 111. 63.</_>
    <_>
      184. 114. 60.</_>
    <_>
      192. 129. 71.</_>
    <_>
      187. 124. 66.</_>
    <_>
      184. 121. 63.</_>
    <_>
      181. 117. 63.</_>
    <_>
      247. 217. 158.</_>
    <_>
      233. 177. 122.</_>
    <_>
      255. 240. 177.</_>
    <_>
      0. 0. 0.</_>
    <_>
      0. 0. 0.</_>
    <_>
      198. 129. 79.</_>
    <_>
      198. 134. 86.</_>
    <_>
      244. 191. 148.</_>
    <_>
      255. 213. 170.</_>
    <_>
      181. 113. 78.</_>
    <_>
      185. 134. 84.</_>
    <_>
      127. 86. 64.</_>
    <_>
      122. 84. 60.</_>
    <_>
      132. 95. 73.</_>
    <_>
      187. 181. 136.</_>
    <_>
      219. 202. 159.</_>
    <_>
      132. 82. 64.</_>
    <_>
      122. 80. 57.</_>
    <_>
      211. 193. 128.</_>
    <_>
      210. 167. 124.</_>
    <_>
      228. 181. 125.</_>
    <_>
      153. 109. 80.</_>
    <_>
      162. 110. 80.</_>
    <_>
      151. 104. 76.</_>
    <_>
      141. 101. 73.</_>
    <_>
      213. 229. 228.</_>
    <_>
      172. 202. 143.</_>
    <_>
      166. 188. 153.</_>
    <_>
      148. 182. 122.</_>
    <_>
      132. 167. 110.</_>
    <_>
      120. 155. 99.</_>
    <_>
      114. 147. 96.</_>
    <_>
      116. 148. 99.</_>
    <_>
      165. 204. 129.</_>
    <_>
      230. 251. 219.</_>
    <_>
      141. 182. 125.</_>
    <_>
      139. 184. 111.</_>
    <_>
      142. 182. 104.</_>
    <_>
      130. 174. 97.</_>
    <_>
      117. 157. 92.</_>
    <_>
      120. 124. 125.</_>
    <_>
      63. 65. 65.</_>
    <_>
      59. 61. 62.</_>
    <_>
      159. 164. 162.</_>
    <_>
      75. 75. 75.</_>
    <_>
      146. 155. 142.</_>
    <_>
      50. 49. 51.</_>
    <_>
      47. 46. 48.</_>
    <_>
      55. 54. 56.</_>
    <_>
      54. 63. 72.</_>
    <_>
      94. 116. 121.</_>
    <_>
      122. 149. 153.</_>
    <_>
      130. 159. 163.</_>
    <_>
      133. 162. 167.</_>
    <_>
      149. 175. 181.</_>
    <_>
      154. 183. 188.</_>
    <_>
      186. 211. 213.</_>
    <_>
      175. 205. 206.</_>
    <_>
      125. 143. 150.</_>
    <_>
      99. 117. 128.</_>
    <_>
      79. 99. 110.</_>
    <_>
      71. 83. 95.</_>
    <_>
      61. 69. 82.</_>
    <_>
      144. 159. 168.</_>
    <_>
      155. 173. 184.</_>
    <_>
      139. 165. 181.</_>
    <_>
      208. 214. 227.</_>
    <_>
      212. 206. 217.</_>
    <_>
      238. 220. 221.</_>
    <_>
      244. 232. 230.</_>
    <_>
      247. 242. 241.</_>
    <_>
      193. 194. 198.</_>
    <_>
      229. 230. 234.</_>
    <_>
      223. 223. 223.</_>
    <_>
      222. 215. 220.</_>
    <_>
      124. 124. 142.</_>
    <_>
      134. 137. 151.</_>
    <_>
      184. 193. 202.</_>
    <_>
      170. 176. 181.</_>
    <_>
      103. 99. 111.</_>
    <_>
      97. 89. 106.</_>
    <_>
      100. 91. 104.</_>
    <_>
      181. 176. 177.</_>
    <_>
      183. 189. 184.</_>
    <_>
      111. 127. 143.</_>
    <_>
      146. 159. 167.</_>
    <_>
      154. 161. 170.</_>
    <_>
      128. 124. 143.</_>
    <_>
      118. 112. 131.</_>
    <_>
      151. 148. 163.</_>
    <_>
      200. 219. 222.</_>
    <_>
      174. 190. 206.</_>
    <_>
      101. 114. 130.</_>
    <_>
      94. 106. 124.</_>
    <_>
      176. 201. 151.</_>
    <_>
      162. 192. 139.</_>
    <_>
      153. 183. 140.</_>
    <_>
      158. 185. 151.</_>
    <_>
      151. 177. 147.</_>
    <_>
      151. 181. 132.</_>
    <_>
      156. 186. 137.</_>
    <_>
      138. 170. 116.</_>
    <_>
      140. 169. 123.</_>
    <_>
      121. 151. 108.</_>
    <_>
      122. 152. 109.</_>
    <_>
      129. 162. 111.</_>
    <_>
      156. 187. 188.</_>
    <_>
      159. 190. 191.</_>
    <_>
      145. 173. 174.</_>
    <_>
      166. 197. 194.</_>
    <_>
      36. 52. 64.</_>
    <_>
      56. 64. 77.</_>
    <_>
      91. 89. 108.</_>
    <_>
      30. 29. 33.</_>
    <_>
      70. 73. 87.</_>
    <_>
      93. 80. 94.</_>
    <_>
      69. 59. 72.</_>
    <_>
      59. 48. 64.</_>
    <_>
      82. 71. 91.</_>
    <_>
      107. 100. 121.</_>
    <_>
      177. 177. 193.</_>
    <_>
      101. 128. 84.</_>
    <_>
      107. 131. 73.</_>
    <_>
      193. 201. 171.</_>
    <_>
      128. 139. 99.</_>
    <_>
      121. 142. 79.</_>
    <_>
      125. 144. 81.</_>
    <_>
      132. 151. 88.</_>
    <_>
      134. 161. 88.</_>
    <_>
      135. 168. 83.</_>
    <_>
      110. 150. 68.</_>
    <_>
      134. 173. 71.</_>
    <_>
      125. 154. 74.</_>
    <_>
      142. 168. 90.</_>
    <_>
      121. 153. 64.</_>
    <_>
      143. 176. 62.</_>
    <_>
      136. 170. 62.</_>
    <_>
      131. 164. 59.</_>
    <_>
      112. 147. 43.</_>
    <_>
      123. 158. 54.</_>
    <_>
      118. 152. 51.</_>
    <_>
      159. 193. 92.</_>
    <_>
      138. 172. 78.</_>
    <_>
      152. 174. 85.</_>
    <_>
      154. 176. 88.</_>
    <_>
      156. 180. 92.</_>
    <_>
      159. 178. 99.</_>
    <_>
      158. 178. 101.</_>
    <_>
      164. 184. 107.</_>
    <_>
      170. 189. 104.</_>
    <_>
      165. 184. 99.</_>
    <_>
      141. 165. 81.</_>
    <_>
      150. 172. 94.</_>
    <_>
      134. 160. 70.</_>
    <_>
      240. 243. 255.</_>
    <_>
      220. 224. 243.</_>
    <_>
      181. 185. 209.</_>
    <_>
      157. 160. 188.</_>
    <_>
      141. 142. 168.</_>
    <_>
      136. 155. 106.</_>
    <_>
      254. 255. 243.</_>
    <_>
      183. 193. 170.</_>
    <_>
      118. 133. 89.</_>
    <_>
      108. 124. 83.</_>
    <_>
      104. 131. 68.</_>
    <_>
      94. 128. 63.</_>
    <_>
      89. 117. 57.</_>
    <_>
      103. 134. 67.</_>
    <_>
      126. 163. 83.</_>
    <_>
      108. 143. 79.</_>
    <_>
      116. 155. 77.</_>
    <_>
      114. 152. 54.</_>
    <_>
      114. 147. 56.</_>
    <_>
      116. 147. 68.</_>
    <_>
      147. 182. 85.</_>
    <_>
      145. 180. 76.</_>
    <_>
      143. 176. 91.</_>
    <_>
      138. 167. 94.</_>
    <_>
      137. 165. 89.</_>
    <_>
      100. 135. 68.</_>
    <_>
      104. 138. 77.</_>
    <_>
      111. 148. 80.</_>
    <_>
      112. 143. 68.</_>
    <_>
      125. 163. 81.</_>
    <_>
      120. 161. 70.</_>
    <_>
      107. 146. 61.</_>
    <_>
      115. 154. 74.</_>
    <_>
      129. 165. 83.</_>
    <_>
      78. 73. 104.</_>
    <_>
      111. 249. 255.</_>
    <_>
      86. 87. 101.</_>
    <_>
      38. 35. 37.</_>
    <_>
      255. 255. 255.</_>
    <_>
      96. 101. 104.</_>
    <_>
      128. 132. 133.</_>
    <_>
      195. 209. 207.</_>
    <_>
      176. 198. 193.</_>
    <_>
      82. 100. 101.</_>
    <_>
      188. 216. 217.</_>
    <_>
      138. 152. 151.</_>
    <_>
      101. 97. 102.</_>
    <_>
      112. 119. 116.</_>
    <_>
      40. 40. 40.</_>
    <_>
      84. 84. 84.</_>
    <_>
      106. 105. 107.</_>
    <_>
      108. 113. 112.</_>
    <_>
      89. 93. 94.</_>
    <_>
      125. 126. 130.</_>
    <_>
      119. 114. 123.</_>
    <_>
      76. 67. 80.</_>
    <_>
      45. 33. 51.</_>
    <_>
      140. 132. 142.</_>
    <_>
      137. 129. 136.</_>
    <_>
      169. 168. 177.</_>
    <_>
      126. 122. 134.</_>
    <_>
      124. 120. 131.</_>
    <_>
      225. 225. 225.</_>
    <_>
      160. 153. 158.</_>
    <_>
      199. 188. 196.</_>
    <_>
      210. 205. 207.</_>
    <_>
      175. 165. 171.</_>
    <_>
      188. 178. 184.</_>
    <_>
      255. 248. 253.</_>
    <_>
      102. 106. 107.</_>
    <_>
      125. 138. 140.</_>
    <_>
      89. 101. 107.</_>
    <_>
      136. 148. 148.</_>
    <_>
      78. 91. 93.</_>
    <_>
      158. 174. 173.</_>
    <_>
      169. 187. 186.</_>
    <_>
      156. 177. 175.</_>
    <_>
      215. 236. 234.</_>
    <_>
      241. 255. 255.</_>
    <_>
      243. 255. 230.</_>
    <_>
      146. 177. 110.</_>
    <_>
      142. 173. 104.</_>
    <_>
      137. 155. 124.</_>
    <_>
      231. 246. 232.</_>
    <_>
      227. 242. 245.</_>
    <_>
      224. 245. 236.</_>
    <_>
      125. 155. 120.</_>
    <_>
      114. 154. 89.</_>
    <_>
      128. 166. 94.</_>
    <_>
      151. 181. 108.</_>
    <_>
      158. 185. 119.</_>
    <_>
      162. 183. 128.</_>
    <_>
      171. 188. 145.</_>
    <_>
      167. 191. 137.</_>
    <_>
      175. 192. 155.</_>
    <_>
      219. 239. 227.</_>
    <_>
      214. 238. 214.</_>
    <_>
      174. 195. 170.</_>
    <_>
      153. 185. 106.</_>
    <_>
      156. 189. 108.</_>
    <_>
      161. 196. 110.</_>
    <_>
      170. 200. 117.</_>
    <_>
      174. 201. 128.</_>
    <_>
      180. 200. 158.</_>
    <_>
      236. 253. 250.</_>
    <_>
      227. 250. 246.</_>
    <_>
      187. 212. 208.</_>
    <_>
      114. 124. 134.</_>
    <_>
      114. 132. 143.</_>
    <_>
      131. 148. 167.</_>
    <_>
      138. 161. 177.</_>
    <_>
      130. 155. 171.</_>
    <_>
      61. 75. 87.</_>
    <_>
      13. 77. 95.</_>
    <_>
      121. 221. 233.</_>
    <_>
      39. 89. 111.</_>
    <_>
      40. 96. 113.</_>
    <_>
      43. 128. 138.</_>
    <_>
      42. 101. 116.</_>
    <_>
      57. 87. 106.</_>
    <_>
      111. 195. 207.</_>
    <_>
      48. 105. 120.</_>
    <_>
      47. 86. 101.</_>
    <_>
      248. 255. 240.</_>
    <_>
      242. 248. 229.</_>
    <_>
      243. 253. 240.</_>
    <_>
      109. 133. 75.</_>
    <_>
      114. 139. 77.</_>
    <_>
      94. 125. 74.</_>
    <_>
      97. 120. 75.</_>
    <_>
      94. 117. 72.</_>
    <_>
      100. 121. 72.</_>
    <_>
      110. 137. 97.</_>
    <_>
      113. 139. 99.</_>
    <_>
      117. 146. 101.</_>
    <_>
      106. 138. 89.</_>
    <_>
      101. 119. 96.</_>
    <_>
      238. 222. 229.</_>
    <_>
      205. 185. 198.</_>
    <_>
      72. 59. 83.</_>
    <_>
      62. 56. 79.</_>
    <_>
      62. 54. 71.</_>
    <_>
      54. 45. 65.</_>
    <_>
      46. 38. 61.</_>
    <_>
      48. 40. 63.</_>
    <_>
      30. 41. 49.</_>
    <_>
      40. 47. 56.</_>
    <_>
      147. 140. 147.</_>
    <_>
      112. 107. 122.</_>
    <_>
      34. 29. 44.</_>
    <_>
      50. 55. 70.</_>
    <_>
      46. 55. 65.</_>
    <_>
      189. 198. 211.</_>
    <_>
      186. 203. 212.</_>
    <_>
      160. 169. 183.</_>
    <_>
      112. 132. 137.</_>
    <_>
      88. 108. 73.</_>
    <_>
      60. 77. 66.</_>
    <_>
      63. 80. 71.</_>
    <_>
      67. 82. 68.</_>
    <_>
      138. 156. 157.</_>
    <_>
      83. 98. 77.</_>
    <_>
      85. 103. 80.</_>
    <_>
      130. 147. 133.</_>
    <_>
      78. 92. 104.</_>
    <_>
      185. 206. 203.</_>
    <_>
      66. 91. 65.</_>
    <_>
      69. 98. 65.</_>
    <_>
      72. 93. 71.</_>
    <_>
      171. 193. 204.</_>
    <_>
      127. 150. 136.</_>
    <_>
      195. 221. 215.</_>
    <_>
      79. 101. 77.</_>
    <_>
      65. 85. 66.</_>
    <_>
      66. 86. 81.</_>
    <_>
      62. 83. 80.</_>
    <_>
      163. 187. 199.</_>
    <_>
      165. 183. 182.</_>
    <_>
      84. 101. 92.</_>
    <_>
      84. 103. 88.</_>
    <_>
      80. 95. 67.</_>
    <_>
      89. 118. 72.</_>
    <_>
      78. 107. 62.</_>
    <_>
      86. 106. 63.</_>
    <_>
      62. 88. 58.</_>
    <_>
      72. 97. 71.</_>
    <_>
      68. 95. 52.</_>
    <_>
      75. 99. 59.</_>
    <_>
      67. 83. 59.</_>
    <_>
      66. 84. 53.</_>
    <_>
      54. 75. 53.</_>
    <_>
      81. 114. 70.</_>
    <_>
      85. 117. 70.</_></support_vectors>
  <decision_functions>
    <_>
      <sv_count>356</sv_count>
      <rho>-7.2132853654904672e-01</rho>
      <alpha>
        1.4566276509168574e-01 3.3453202330763349e-03
        7.0593026485953170e-02 1.3117259909560025e-01
        1.4826896533154632e-01 4.3489051573788629e-02
        4.8134469819684167e-02 1.0092618804750469e-01
        1.1911585810760728e-01 1.5948335147141129e-01
        8.4132411499355436e-02 8.3533076989034172e-02
        1.4508453061587345e-01 4.7971112173843089e-02
        1.0798783352039926e-01 1.5543483545417763e-01
        4.0064816765395814e-03 2.7874188661420979e-01
        2.2732798149620281e-01 7.9201391825225002e-03
        4.5851943414401297e-02 8.8985844089000343e-02
        9.8431856606770007e-02 3.9511999000686526e-02
        8.6644903478410251e-02 1.6234247944973101e-01
        1.0891963267890964e-01 1.1065142632425973e-01
        7.7890801451379721e-02 1.8222273121804744e-01
        1.0324662162819073e-01 4.8883241915201645e-02
        7.0475109103604161e-02 1.7388490990116573e-01
        1.2905825663360518e-01 1.0909008208132387e-01
        5.1382985220871258e-02 3.5726495348365070e-02
        1.2383806097753336e-01 1.5551841912800124e-01
        1.7661931442077083e-01 1.6659785234966068e-01
        7.1913916071722761e-02 1.3696006190754867e-01
        7.3669671997435182e-02 9.3795176759919885e-03
        3.6759009081915428e-02 5.3051486447379392e-02
        6.2224811693320101e-02 2.0477695477964136e-01
        2.0950625635620007e-01 2.4981396822548241e-02
        4.0532703648547219e-02 1.8464274494136651e-01
        4.7277917457371865e-02 1.5157455665426922e-02
        2.0519210264062182e-01 7.2075480017558466e-02
        4.7140577571192339e-02 2.2985409058006400e-02
        1.4120032064314575e-01 1.4002026396148132e-01
        1.5425024187501579e-01 2.0892288441220930e-02
        9.4997926680644273e-02 1.5244790626600613e-02
        1.7991150074870876e-01 4.5279491028301033e-02
        6.0675623730458511e-02 6.4356284985541259e-02
        9.2055982565692474e-03 4.7828136848588776e-02
        1.6255873729724540e-01 1.8599891043772668e-01
        2.3390411749979612e-01 2.0754191028012448e-01
        2.4169427774062824e-01 2.0198457918020835e-01
        1.9616908112752590e-01 9.9461174938302754e-02
        1.4747397736669643e-01 8.5015263094466137e-02
        1.3303111429438652e-01 9.3809838784809044e-02
        4.3377026977126143e-02 1.5271829448732035e-02
        1.5119156360383826e-01 1.2981334925620314e-01
        4.5422142517324585e-02 5.1716434700299463e-02
        5.6393994781190199e-02 3.1520705291284160e-02
        6.1731523575941027e-02 2.9669036604345667e-02
        6.7275257292951487e-02 8.6396662149928610e-03
        1.5365635117188872e-01 3.2016332671316317e-02
        1.0943590611942638e-01 4.7527916364361850e-02
        1.2314722118394528e-01 6.1767279208091844e-02
        1.3292470872028000e-01 5.4462300871822966e-02
        1.5300880018742968e-01 1.0315531368518738e-01
        6.4581300981993439e-03 1.8433066952105298e-01
        8.5781757135864889e-02 6.1212926069132034e-02
        3.1102898218975050e-02 8.7852669984457052e-02
        5.2000457966844049e-02 4.8429074168700348e-02
        1.5660909714789512e-01 1.8758252909491180e-02
        1.1228642947624083e-01 7.3567849758766457e-02
        1.9311077055514264e-01 4.4380395403450124e-02
        1.2462741173691466e-01 1.2459973318550277e-01
        9.1749133690015250e-02 1.2638514920200211e-01
        1.6844017812097989e-02 2.6445188287072430e-02
        1.1731732093856762e-01 6.5347217050068018e-02
        1.3887451263741968e-02 1.0709180405005442e-01
        4.2315401603360052e-02 1.4957609218264623e-01
        1.8592729731521599e-02 5.6827183608430420e-02
        2.3414751106828413e-01 3.2359202004426102e-03
        1.4733409096568068e-01 1.5315764134632093e-02
        1.2209619813251438e-01 7.2055090894879908e-02
        1.0242624132409310e-01 3.8020613603828690e-02
        2.3165690168538366e-02 1.7848140500600629e-01
        4.7332345358142625e-02 2.9864170594700645e-02
        2.3313798406713604e-02 9.9826766114377297e-02
        4.0814039734727019e-02 1.0554364739343361e-01
        1.9328692214229226e-01 5.2265316288811203e-02
        2.7721240552104737e-01 9.9116406499746679e-02
        2.1311690125105931e-01 1.5983912929830624e-01
        2.7778769188667352e-01 2.7914631461630274e-01
        3.8216954014743787e-02 8.9345907467154817e-02
        2.5125699440680493e-01 1.8815078127533730e-01
        5.7430615521461670e-02 1.4061736955386253e-01
        1.6797654025464953e-01 1.4751368946630547e-01
        8.2157651870170600e-02 7.8037311163466461e-02
        1.7513969238324378e-02 1.3476537544461065e-01
        1.5586558783337490e-01 1.6644058459264688e-01
        3.4881310505204002e-02 5.3590158529816578e-02
        4.4993092102689425e-02 1.5408164887737685e-01
        1.5055646789496713e-01 7.3676302723463261e-03
        2.4311800731093935e-01 8.3527910012194229e-02
        2.2920633544788105e-01 1.6244262761409034e-01
        1.0814833466330981e-01 3.4096228507055071e-03
        5.9126899101824948e-02 1.2443268514192285e-01
        2.0547662561470498e-01 3.3326191106092862e-02
        1.1194480915504634e-01 2.1729661966939268e-01
        1.7609750893345452e-01 2.7865048578207335e-01
        4.8344056014765657e-02 7.2448535571456224e-02
        3.9466737628494508e-02 5.0014656835038487e-02
        6.4578888972720794e-02 1.0500964280842467e-01
        1.6995488381466806e-02 1.0781019731950447e-02
        6.8442638357212315e-02 3.7199804429131718e-03
        4.8623668269501485e-02 3.0667822093780051e-03
        4.8901946230655635e-02 1.9290913792327280e-02
        2.4295618110917183e-02 1.8812114052935319e-01
        3.9147466988311078e-03 3.6350375893178632e-02
        1.5646104318106049e-01 5.8047593971230049e-02
        7.7235454694041181e-02 1.4692155263150669e-01
        4.4890555302336821e-02 1.7834791443862369e-01
        1.7451128870913146e-01 5.0005745835082993e-02
        4.3341805072465517e-02 1.6039996311410470e-01
        1.4872734547676941e-01 1.2796911493968877e-01
        6.3731619881634158e-02 6.6553787014341170e-02
        2.3829894149960770e-02 5.1574102970413538e-02
        1.0857305882323920e-02 1.5071434300870964e-01
        9.0336932816360016e-03 5.9268236200772595e-02
        1.2101115191597533e-01 1.3299979915628540e-01
        1.7385577857941947e-01 1.6156486397006781e-01
        9.2063928008881357e-02 6.6665771764086779e-02
        1.3592814748798393e-01 1.6925923589817796e-01
        1.7036486114389976e-01 2.0461836764676214e-01
        1.9712200606003444e-01 1.4388161596824511e-01
        1.7871048959590333e-01 1.7519210224487430e-01
        1.2064780009576587e-01 1.6119529879298661e-01
        1.1869833498515187e-01 1.1668508400892541e-01
        5.9764871006259435e-02 2.2912140525176480e-01
        1.6582733047417800e-01 1.5359543283077393e-01
        7.7072519004996690e-02 2.1100608169681123e-01
        1.5375228531146912e-01 5.1576468947566664e-02
        4.8922518073872934e-02 1.3788749382802809e-01
        1.3841067033018739e-02 8.3557504296279700e-02
        1.5780589565458358e-02 2.9557949680121209e-02
        8.0440627223654304e-02 6.1645546737075729e-02
        1.0473321657569079e-01 1.2916884972333564e-01
        5.5243999256740846e-02 1.7311049150873539e-01
        1.5902618534711360e-01 1.6785471174308325e-01
        2.4222694801919431e-01 1.6082858688369428e-01
        5.1376448224552076e-02 3.5189276928395685e-03
        1.3355539567281938e-01 2.1108475167361909e-01
        2.4811353766308730e-01 6.5660945713584329e-02
        9.2765461071908639e-03 1.7102300194715550e-01
        1.3197014372024152e-01 4.0192242107925324e-02
        5.9092455419217926e-02 1.5785077096825501e-01
        2.4009595629846664e-01 1.4428427661543722e-01
        2.5856703662385377e-02 2.1214508642868651e-01 10.
        2.3245910022475524e-01 6.1682025607458987e-02
        3.7257333438594824e-02 3.2038059598464619e-02
        1.1934740949254624e-01 1.4175501494050713e-01
        4.7174797604538576e-02 2.0659364016326273e-02
        1.6063963119063995e-02 1.1961376361804726e-01
        2.1967022563266977e-01 9.0923075870589953e-02
        2.2372634006860898e-01 1.3330386016479878e-01
        3.9423047639202347e-02 9.4911112388876562e-02
        7.0922315067797781e-02 1.5340656593665175e-01
        1.2379175521213526e-01 2.6098206417825346e-02
        1.2611145577554086e-01 1.8061463915319459e-01
        2.0995452460357222e-02 2.8053038822321383e-02
        1.1587062207813466e-01 2.0311535340134396e-01
        1.9501186801062570e-01 1.8743185013202390e-01
        1.5753837912828189e-01 1.4808310138257813e-01
        7.7657723771213938e-02 1.0466404647069323e-01
        2.6995308743424436e-02 1.9401833385632383e-01 -10.
        -1.7210784223685525e+00 -1.7223373372974213e+00
        -1.0947739875429421e+00 -1.5525750591614482e+00
        -1.8242394848146268e-01 -4.9270524174333058e-01
        -2.3601702330160512e-02 -6.7351227437555183e-01
        -1.0661816628702836e-01 -5.7552800992589248e-01
        -1.3084002707897542e+00 -4.4902424085841092e-01
        -8.5703289908862568e-01 -1.1492640571736672e+00
        -1.7272980255081123e+00 -1.1691391117817118e+00
        -1.7068845132562489e+00 -1.1210019984968762e+00
        -1.7200379711127716e+00 -1.2673142156012163e+00
        -3.9059398786027599e-01 -8.1239282753028863e-01
        -1.2951291565467797e+00 -1.0264446079281104e+00
        -1.0261094962350352e+00 -1.7125350727389728e+00
        -5.5036909018717139e-01 -1.7202017200457513e+00
        -1.4451713474792198e+00 -1.5551370357343930e+00
        -1.2228492198209204e-01 -1.3305218263887295e+00</alpha>
      <index>
        201 202 203 204 205 206 200 213 211 212 214 215 207 208 209 210
        196 198 197 199 232 233 234 235 236 230 231 247 244 245 246 243
        248 249 250 237 238 239 240 241 242 219 220 221 222 223 216 217
        218 228 229 224 225 226 227 176 175 177 178 173 171 172 174 179
        156 157 158 159 152 153 154 155 169 163 164 165 166 167 168 170
        160 161 162 188 186 187 194 193 195 189 190 191 192 182 181 180
        184 185 183 336 334 335 337 338 339 340 341 342 327 328 329 330
        331 332 333 344 343 326 310 311 312 318 319 320 321 322 323 324
        325 313 314 315 316 317 353 351 352 355 354 346 345 347 348 349
        350 271 270 272 273 274 278 279 280 281 282 275 276 277 262 258
        259 260 261 263 264 265 257 251 252 253 254 255 256 269 267 268
        266 305 299 300 301 302 303 304 306 307 308 309 298 284 285 283
        291 292 293 294 295 296 297 286 287 151 288 289 290 73 72 66 65
        67 64 63 62 70 71 74 69 68 89 93 92 91 90 94 88 87 86 85 84 100
        99 98 97 96 95 82 81 80 79 78 77 76 75 83 34 35 57 56 55 54 53
        52 61 60 59 58 51 38 40 39 41 37 36 46 50 49 48 47 45 44 43 42
        139 138 140 133 132 131 137 136 135 134 149 148 147 146 145 144
        0 150 143 142 141 118 117 116 115 114 121 122 120 119 106 105
        104 103 102 101 113 112 111 110 109 108 107 129 128 127 126 130
        125 123 124 13 12 11 10 9 14 4 8 7 6 5 15 1 3 2 23 25 27 26 24
        22 21 32 31 33 29 28 30 16 18 17 20 19</index></_></decision_functions></opencv_ml_svm>
</opencv_storage>
